-22 -32 29 -28 -8 14 -20 -1 16 24 -3 0 6 -9 -8 -3 12 -28 -1 24 32 -28 -29 7 27 -7 -31 -24 -18 0 -14 8 1 -27 2 -3 -12 2 2 20 10 13 0 -17 -20 12 32 14 -1 -24 -31 28 29 -17 17 2 13 2 6 -17 12 26 -22 23 32 -30 -2 -3 18 -18 10 23 -9 13 -25 -1 -12 27 0 -19 14 -20 6 17 19 23 2 4 16 8 17 -6 10 30 1 -14 -29 -1 -2 20 23 -8 -23 -14 10 -25 -14 -1 -6 1 -26 -17 27 -12 -2 -25 -12 16 21 -5 6 -30 11 22 -2 18 -4 7 -9 1 20 -20 6 -25 13 7 -21 14 27 6 -11 14 -15 -27 -21 14 -22 21 32 -23 32 -14 -13 -5 30 -17 30 -31 -20 12 23 19 16 14 5 31 10 -19 19 15 18 -31 -9 6 -32 10 5 9 5 -1 3 0 25 12 17 -24 -12 29 8 6 3 -14 10 19 16 -29 21 19 -12 -19 -31 18 -30 9 -8 7 -3 -13 20 2 -2 15 -6 2 12 2 14 -9 15 3 9 -29 26 -1 13 -25 -6 18 -12 24 0 4 8 -9 -19 -19 0 -12 1 26 23 0 12 -29 -32 2 -6 8 28 18 3 22 6 11 4 -14 
21 -9 23 30 28 -1 10 -15 11 -18 8 -18 -12 -6 -28 -21 -15 4 31 -14 -29 31 -24 0 21 -3 25 -12 20 -20 -27 -20 -25 22 22 -28 18 -4 -20 18 1 -22 -32 -14 14 7 -10 9 9 18 2 17 1 -27 -22 18 12 -14 -24 -15 5 24 9 -15 -8 13 -26 0 11 -28 -26 -8 -5 11 7 -19 10 -1 12 18 -13 28 -28 -26 -14 13 11 30 -18 -29 9 29 27 -16 -32 32 22 19 -30 30 -6 -11 -10 -20 -14 23 13 26 9 26 5 -4 -5 -13 30 -3 7 -11 -4 23 -11 14 -12 -32 1 28 30 4 9 -23 18 -9 -2 12 3 -13 24 18 15 -5 -16 10 25 17 -27 4 -26 11 -19 27 -4 -9 12 -18 25 13 -2 -28 28 -11 -27 3 28 4 -30 12 3 31 -6 -25 0 -19 10 22 15 15 27 -32 21 -6 -20 8 0 32 9 -17 -26 19 12 -22 9 -14 -15 28 5 -27 21 -12 -15 16 32 28 12 -20 11 -6 -4 -22 -26 -12 -30 -32 -5 23 14 -5 5 26 -11 26 -21 14 10 -4 3 -17 -18 -12 -18 -26 -18 -20 12 -21 8 13 -17 7 13 23 9 19 15 32 -2 -14 9 -4 10 29 21 -11 30 13 -11 0 
30 17 -7 18 31 -20 0 15 14 4 30 4 9 3 20 27 10 31 -30 -6 14 12 6 -26 31 23 27 -4 13 -29 -12 7 29 9 4 15 -4 -17 -22 -20 11 -23 12 1 -25 -14 -10 -25 -1 -6 -17 -6 -10 -28 2 -4 -4 -2 17 10 -9 8 28 -6 -13 20 13 23 -13 -22 26 -6 15 -22 19 11 24 26 -20 6 18 4 15 13 -8 -28 -25 16 15 -3 25 0 32 -14 -4 -31 -10 -2 -13 0 -27 31 -15 -6 29 -31 5 -30 -17 -30 18 -2 -5 27 17 -3 -6 -1 -15 -28 16 -30 13 24 17 -8 14 -5 -24 -9 10 -29 6 25 12 -22 12 15 -21 -32 25 -14 -24 3 -11 -2 -2 -7 -7 8 -25 -13 29 22 6 19 15 16 4 -28 28 25 -5 21 -15 -21 -6 22 -19 -28 28 -3 1 -31 -7 -19 24 11 -11 29 -20 -29 1 -13 -12 -1 -18 5 28 -16 24 26 -16 -25 12 18 -17 11 21 2 -11 17 -9 -25 31 -28 -8 18 -6 -14 3 14 -6 22 -9 -5 -28 -26 -28 14 8 -16 -4 24 29 -23 -16 27 -16 11 16 20 -21 1 9 -12 -30 25 9 -26 -1 -10 -20 28 -9 20 -12 8 1 16 -25 23 26 -26 4 17 
-22 -27 -10 -6 -10 -8 1 24 2 10 -9 16 11 16 32 13 -5 13 32 -28 23 -8 -5 6 -15 32 4 -12 -25 24 -17 -8 24 -31 -2 10 20 15 26 -18 -20 24 -25 -5 -23 -21 -14 -23 -30 4 -16 10 17 -7 -10 4 32 16 17 17 21 -14 -26 -14 16 -2 22 -19 3 31 -29 -21 7 -29 -31 15 -6 14 -13 -29 32 -23 27 22 -26 -11 -13 32 -5 8 -19 12 27 -3 0 -21 -5 -9 -27 -11 -25 -3 17 28 1 30 29 -2 28 16 19 -21 18 -14 11 -12 10 -27 28 -24 10 -10 -27 20 -2 -11 18 -11 9 -19 -26 3 -10 -10 -23 22 -6 -24 29 -12 24 11 11 3 -5 -24 -10 29 -6 24 6 5 -29 -15 22 -12 25 28 -17 26 -21 10 8 11 4 -8 24 -21 -23 -3 -11 -13 18 28 -9 -27 -14 -19 -28 -32 28 5 -25 25 -13 -19 -8 -2 -30 6 -14 8 -27 5 28 22 -23 9 -4 -28 -18 -5 -32 -30 13 -19 -4 -17 6 -11 -6 -3 27 -27 20 -21 8 -19 19 26 -1 -17 26 -31 -2 9 -23 27 -26 12 -16 -21 23 -32 -11 6 -9 25 25 -2 -6 -29 9 -11 -8 9 11 -19 19 -20 -31 -31 -26 28 17 -10 
-32 -16 -16 1 1 1 5 23 17 1 -24 27 6 -28 8 -21 28 -8 -27 31 -16 25 -32 -30 -25 -31 -2 10 -17 -14 22 -23 -25 -19 16 -4 -8 -18 -22 31 13 24 -19 10 -29 25 -20 24 -18 -26 16 -7 -6 21 8 20 -3 -30 -23 4 13 8 32 -22 26 5 20 -15 11 -9 -14 26 14 9 15 -16 -22 5 2 -9 -3 31 31 -28 4 -28 -21 17 10 -27 7 3 9 -26 -13 -21 10 -24 19 -3 19 -6 28 27 0 -16 11 -31 -10 -1 -10 20 -5 5 -12 -21 -15 -7 30 -28 32 -1 14 31 -4 -17 16 21 -21 -29 13 -20 22 -4 -6 7 22 9 26 -23 -12 -14 12 -8 -24 12 22 -8 32 27 -16 -27 25 11 13 -17 31 22 -23 -18 6 31 -16 -22 8 4 12 -28 -20 -18 -18 -14 -19 -26 7 -30 32 -19 10 11 11 -1 -20 -18 -31 10 -17 3 -23 9 -21 22 -31 24 -27 20 11 2 -25 -26 -27 -32 19 5 -23 -25 5 15 11 -13 23 -6 -8 31 -32 -22 -27 15 21 -10 -17 -27 -8 -6 5 -28 -18 27 -14 -4 31 18 -28 29 21 -7 -16 -19 27 32 19 -27 -21 2 16 7 -20 21 5 28 28 5 -27 14 -5 -4 
-14 -25 -5 6 -18 -12 -20 23 -23 -2 1 21 -20 -23 30 20 -24 8 29 -28 32 2 7 -11 -3 16 28 14 2 28 29 -15 -23 -26 1 -19 -3 16 -28 9 5 17 -17 30 30 -28 -25 12 6 -16 8 -7 20 -11 -30 0 29 -3 -14 -21 22 23 -28 -1 13 -5 -11 -5 28 -19 30 -12 -19 22 -29 26 18 18 31 -6 -19 11 12 -24 -23 -10 0 15 12 -25 11 12 -8 -28 -14 -4 31 19 -2 16 17 4 25 -6 -2 -23 8 -5 12 29 -1 24 -30 -24 -29 -16 25 -19 8 27 -7 2 27 10 -21 17 0 21 14 23 -12 0 -26 10 -3 -8 0 -32 -4 15 -2 -13 24 29 8 14 -6 7 -31 10 -31 -5 20 15 23 28 -1 -18 -28 -25 25 -10 5 5 -12 -3 15 32 4 -2 -30 -28 9 -24 13 12 -7 -23 13 7 -27 -9 31 25 22 -9 -2 1 18 12 -32 29 -20 -22 26 1 22 -20 -14 20 11 11 -7 -20 -5 -1 -20 -26 -24 -17 0 -1 21 11 -11 -8 30 30 1 -20 0 12 -14 1 -9 17 24 -12 -18 16 -32 -21 -4 -30 -15 25 2 -22 24 -27 19 -26 9 -21 -13 -29 -25 29 25 3 24 -12 -10 -2 30 -12 
-18 23 16 -6 -2 -7 -26 30 18 1 -7 16 -21 29 -22 29 -16 -26 13 15 18 -4 -17 -15 9 -3 -8 -20 -13 -17 15 22 1 -13 8 -7 -21 -20 -22 -30 2 16 29 -13 -6 -21 0 -1 20 28 31 -4 -24 3 20 26 -30 -20 -1 11 3 -14 25 -25 4 14 20 -7 -7 -26 23 19 -25 8 -13 31 26 -1 -25 8 29 20 -7 -1 16 20 -24 -28 10 -17 -8 0 17 -32 -8 -27 -10 -10 -11 -2 -30 -23 -14 -31 -17 -11 -6 -28 3 11 -23 14 15 -29 -10 -19 3 -20 -9 -30 20 26 -9 28 -20 16 -26 -32 5 -11 -5 15 22 22 -12 25 7 -22 -15 -28 -3 -15 -18 7 9 -27 19 15 -2 -6 4 -18 -15 32 0 -30 -1 -31 11 4 28 7 -30 15 22 -19 23 1 -7 3 -30 -27 -7 20 31 -24 12 32 -31 -23 19 22 16 -22 -9 17 -27 12 15 -14 14 -27 -11 -6 12 -2 9 -31 5 -15 -5 24 27 -1 16 29 19 2 2 8 18 32 32 -21 -6 20 -5 9 -11 12 -14 20 -25 31 -3 7 17 30 -11 -24 -5 1 13 -3 -20 0 -10 -19 5 -3 -5 12 16 15 -25 16 13 28 -31 -4 -25 -31 -23 -13 -28 -14 
10 29 10 31 18 -19 18 -11 -2 1 12 -1 -32 15 -14 10 4 -6 14 12 -31 24 12 -30 5 1 25 -24 7 5 23 -12 -18 -4 24 -2 11 2 -24 -3 -26 -7 -15 2 23 -17 -29 -17 4 27 -7 4 22 13 -4 -28 -4 32 -30 -23 -10 6 10 14 -25 14 -22 -20 19 -22 32 -24 24 23 -6 27 15 -5 -8 20 -7 -18 -29 -26 14 -2 26 -7 32 -21 -4 -12 10 -17 -22 32 -2 10 -11 -3 -28 12 10 -31 0 -11 23 28 -19 -14 26 30 -7 13 -4 8 18 -28 13 -1 -13 -8 25 12 6 19 0 -10 -24 28 30 28 -32 30 -10 -1 -18 -14 -3 -31 27 8 16 8 -12 -29 -4 -8 -6 -10 20 2 12 -30 28 32 -29 29 19 -13 24 -1 19 -27 29 -21 -28 -22 15 26 -22 -8 -30 -13 13 -29 19 -23 0 16 21 6 27 22 -10 -4 -26 26 -6 27 -25 -13 18 -27 -30 -5 14 -3 11 -32 25 26 23 -6 21 32 -1 -8 32 27 22 20 -13 6 8 -12 -23 -15 13 14 -23 -29 25 15 -19 11 -17 -15 8 -11 11 27 -7 32 20 -9 -3 -22 -19 30 -17 -15 -32 -23 16 -7 28 6 -21 22 -11 -5 11 -17 -21 -9 
11 10 4 -31 20 -32 -5 0 12 13 -14 23 0 2 -30 -26 -32 0 -11 4 16 -20 18 -21 0 13 -12 -23 32 7 -31 -28 -14 7 1 -30 17 -4 10 17 9 -11 11 14 27 -28 -16 -1 25 -22 14 -10 -31 -26 -15 -6 -30 -18 -6 10 -7 -28 -14 -26 6 -22 -3 30 1 10 10 -22 3 21 -6 -10 0 3 -29 -4 4 -8 -21 6 -15 -1 2 -3 -12 -1 -24 -2 23 7 -3 22 22 -6 14 -7 13 -32 17 -23 17 12 11 17 -31 12 -2 -15 -8 12 24 -11 -20 9 22 -24 -2 14 -5 -16 5 27 4 2 -6 -19 6 -22 -5 -30 15 1 0 -22 -16 -26 26 -1 -13 28 10 20 -12 -19 1 -28 -10 -17 16 17 16 -22 -25 3 17 23 -14 -27 -28 23 -19 6 -6 -6 31 -24 -19 -27 25 22 -28 9 -8 1 -4 10 8 -32 1 -12 -26 -13 -20 17 -27 -10 29 2 0 26 -8 18 -15 -28 -28 -18 -31 -10 12 5 20 10 14 15 -29 18 -6 -11 -1 -3 -1 -26 26 -18 13 -25 -11 -14 -28 -9 -4 -27 -4 -15 5 -30 -21 19 -6 -26 -17 9 11 17 -9 20 31 10 -22 -5 -24 -10 -4 4 9 2 -2 28 -24 -23 -14 1 
-32 -13 19 16 13 26 -19 2 6 16 -22 -1 -26 26 15 8 10 23 20 16 -9 18 -21 -29 -18 -30 -17 -18 -4 13 27 -24 17 10 -8 12 22 -26 -3 31 -10 5 -10 11 -25 -7 -6 5 20 -3 9 -13 19 -17 -19 3 6 -27 -23 -21 25 -5 -30 -26 17 19 -12 13 -12 -8 -24 -11 -18 11 10 -24 26 -6 3 29 7 -2 -14 14 20 28 14 6 17 26 10 -28 12 19 -31 -30 -5 31 -14 1 14 -11 30 2 -10 -14 28 12 12 -11 -25 -15 9 10 31 20 12 -26 20 16 -11 -3 28 11 14 10 -12 -1 -19 3 -6 -32 -26 -19 -9 -12 -31 24 -2 19 14 3 -19 17 -3 11 -32 21 -10 -7 24 3 -21 3 -13 21 -14 32 -32 23 -8 -13 3 -27 -17 -19 -17 -23 -26 -1 4 -22 18 22 -10 12 4 14 13 -20 23 7 26 5 28 -20 -20 25 -23 -14 16 -26 26 16 18 -25 29 20 22 -27 9 -3 10 2 12 2 18 -10 26 -9 25 -7 11 4 -4 -22 9 0 19 26 19 11 -21 29 7 -19 4 -3 16 -2 -6 8 -26 -10 28 -31 -25 -25 -28 -4 15 -8 -19 2 -22 30 30 2 25 -30 23 -13 20 -26 24 18 
13 21 21 16 -3 12 2 -13 21 -13 11 32 -25 16 16 -5 9 -21 -5 2 -2 -23 -21 -28 -12 9 -17 6 -9 -10 24 -21 -8 -17 -27 -32 2 28 25 -24 0 -15 -28 -7 -3 -22 -15 15 -28 -17 -2 29 14 21 -1 -2 -30 26 31 24 -8 -12 10 18 18 -3 -27 31 -29 14 -7 25 1 -5 -23 5 8 -9 2 -32 -22 18 -18 18 8 7 -1 9 -1 20 24 -10 -3 -28 20 -15 0 27 8 -2 -10 -9 5 -24 -27 11 -14 30 19 30 4 -31 -26 -21 -9 0 20 -18 0 31 20 -8 -15 -11 14 -15 23 14 7 13 11 -28 4 30 31 -24 12 27 -6 8 20 7 -16 -13 -32 26 30 12 -30 1 18 -25 -19 18 -13 7 24 10 7 -12 5 -29 3 10 12 15 -1 -30 28 13 32 2 1 -1 -29 -11 12 -31 -27 -1 14 20 -1 -19 3 18 -15 23 -10 -5 -25 -22 10 4 -30 31 -30 -28 30 -23 -5 22 7 0 16 -9 -24 -9 8 9 16 6 -2 7 -27 -24 8 21 -31 21 29 -10 26 3 9 -17 0 -21 -23 -3 1 -16 28 -22 26 -12 7 -25 30 -12 -15 -2 15 13 4 -10 14 -7 -1 28 -5 -27 26 30 16 -30 
27 -16 4 -15 -11 32 30 30 -32 12 0 -27 15 -29 -21 -3 -15 -31 20 -29 5 29 13 -22 -11 -28 -20 32 19 -15 5 -7 3 4 9 3 -23 -10 -18 31 19 0 -13 2 28 -4 -1 -6 -32 -14 -3 -9 -1 15 -18 -13 24 30 -12 -16 -26 -27 -32 23 -29 -18 0 25 -28 27 9 18 -13 24 19 11 4 -11 32 -2 -15 -4 -3 -2 -28 5 -23 -9 -30 -8 -24 10 25 24 -12 15 21 -27 -12 -4 8 -18 -23 30 -1 -13 -6 -7 -27 32 -15 -5 -28 18 29 -30 2 7 9 -27 -27 26 -9 29 -17 5 -23 14 13 -27 0 12 -15 30 13 -2 -22 20 -16 -22 3 -6 25 -8 9 29 -12 -18 27 -11 2 -14 2 0 -5 18 17 -5 28 -30 25 7 13 -23 -3 -14 27 -9 32 -17 10 5 -21 29 12 -31 19 28 -5 -6 -19 16 32 9 0 -7 -27 17 30 -30 31 21 -6 -11 4 4 -27 9 14 -9 -1 -32 19 -1 2 21 30 -3 21 21 -19 -16 -14 -22 -23 25 24 10 31 30 7 20 9 -6 -30 6 11 -26 -17 -23 -21 3 2 17 25 -30 32 -25 -2 8 -6 -7 13 -28 10 -19 -5 -5 -17 -3 -17 -3 -21 32 -29 -8 
23 22 5 27 28 4 18 -20 32 27 -11 26 -19 26 -25 -16 18 -25 14 -20 32 1 1 -18 10 -5 10 -21 24 0 -23 -3 -5 21 25 -7 -6 -2 -10 -26 -12 3 -2 7 28 -27 -16 21 11 16 -3 26 18 28 23 32 -29 -6 -19 -6 16 16 -19 32 -11 20 -23 -9 -23 3 7 -31 14 24 -10 -9 23 -24 -21 10 -12 -20 23 10 -2 -13 0 3 20 -31 -13 13 7 25 -31 17 -32 0 -22 24 -21 9 -4 13 -5 -8 -22 -19 10 -27 32 -27 17 25 -24 3 -19 2 3 -25 5 -19 -20 -1 -31 26 -28 25 -9 -16 -29 -15 25 -27 17 -7 17 -3 -3 -7 -5 16 -8 -15 -30 4 0 -32 -11 20 19 32 31 20 9 21 -6 31 -2 10 1 14 -25 -15 27 -30 -31 14 23 3 -5 17 -10 12 -7 24 -11 5 -17 7 28 -3 0 -8 -22 12 -10 6 12 -5 16 -2 19 9 5 28 7 0 28 18 0 -31 1 15 10 23 28 -17 19 -14 -3 -2 23 11 27 -12 -5 14 -14 4 -19 -10 27 -15 8 20 30 19 -18 25 -19 -25 20 -23 32 -1 27 -19 -26 15 9 -11 17 3 -15 23 8 31 5 18 -8 -12 -26 -11 17 -14 
-13 -20 -24 5 -7 11 -10 4 -10 9 7 27 -31 8 10 20 -31 27 30 -13 -5 23 5 -7 13 -20 22 22 24 5 -8 -12 29 26 17 -28 7 17 -6 -28 29 -6 25 28 0 -18 30 -16 31 14 13 30 9 -1 2 -30 4 30 29 6 -26 -31 19 -12 23 -3 -10 -9 19 12 11 26 -23 -16 7 26 18 -24 -18 -10 23 -3 15 -14 -3 -6 -27 24 15 -7 10 5 15 21 5 14 -29 15 -4 29 -25 3 -28 5 1 -10 -13 -10 25 18 -23 -18 16 31 12 22 23 1 -20 -18 24 -13 2 -25 -31 -3 9 -26 6 -26 -15 -16 -24 14 18 -5 -28 -27 18 -30 2 4 26 5 -4 5 25 8 -2 -7 20 9 6 -17 -19 -21 23 -26 -5 7 -26 29 -16 0 26 6 20 8 -10 -31 -25 -22 -1 18 14 -18 32 10 -6 -19 -12 -13 28 -31 21 7 23 21 -21 4 -29 12 31 12 25 24 8 31 8 -29 2 -21 27 17 -24 -15 -9 -5 21 -13 24 13 -12 -1 -19 -14 29 -26 -25 -18 23 27 -30 -5 14 32 -21 -13 -11 4 -19 17 -8 22 -10 26 -17 -30 -30 13 -32 5 -3 24 29 -32 -21 21 -13 31 -13 -21 -8 -7 4 -11 
-17 -10 -2 -1 8 -15 -2 -10 6 -28 -1 -19 23 17 15 24 -23 17 -30 11 -13 24 16 10 19 -28 -21 -19 -24 -8 21 -32 -20 13 24 -30 -22 27 -3 13 -4 14 -29 -17 -32 15 10 -11 -28 -29 -18 -29 -26 12 7 5 0 -20 21 29 18 -22 25 29 -14 21 28 -17 -2 -27 -20 -32 -13 -8 -26 14 32 -6 -16 -8 17 -6 -6 -1 14 18 -4 21 -2 -22 9 -3 -9 -11 -3 -17 5 26 11 -15 -2 9 15 31 11 -1 11 10 10 -3 -29 -10 25 9 28 -2 24 -7 31 -30 -16 -24 19 32 27 -24 30 -2 7 -4 -16 28 -4 11 0 5 -17 -8 15 -12 15 -21 31 -12 14 -24 -6 -13 0 16 11 -8 8 -18 8 -1 -2 -9 -19 -13 15 11 13 6 -5 -23 32 12 4 -31 -29 31 18 12 -29 -11 19 4 -23 -5 -3 -30 21 15 -21 15 20 8 -32 27 -26 1 26 27 13 26 -32 9 21 -16 -14 31 -5 -26 22 3 16 7 2 13 -23 -13 -26 13 21 26 -10 32 19 -28 9 5 -9 -7 24 -16 -11 26 32 23 -32 -11 -24 -16 21 0 -12 -24 5 -31 -24 -20 -4 -16 -23 10 19 25 0 10 12 29 2 -7 -4 -8 
-24 27 4 -13 29 -9 -31 -14 4 -8 18 -25 -27 9 -21 -30 23 -32 -23 25 -9 -29 -2 28 4 -22 -19 5 7 -3 14 -21 25 -9 -18 32 3 28 12 -28 12 -16 25 22 2 -8 -18 17 6 1 -9 24 -14 8 -18 -28 -21 -3 -32 -2 3 -30 -19 12 -30 -9 13 -11 10 -16 24 27 4 -31 29 -10 -25 -11 -11 27 -6 17 -16 18 -9 13 7 -12 21 17 15 10 23 14 32 -32 -4 -28 22 10 -26 16 20 23 30 19 -4 -2 -21 -32 28 -13 8 -20 -10 -4 -24 30 20 -2 -2 19 -28 23 -3 -24 -11 -3 -16 5 -1 -7 -10 -21 6 15 -14 -18 -15 -9 -27 -4 28 23 21 4 22 -28 -23 -18 -26 27 -8 -10 -11 22 29 -23 32 3 7 3 -5 11 -7 -25 -27 -10 20 10 6 8 20 -23 -14 -27 -3 -2 -29 -16 -6 23 2 6 -1 29 17 7 -4 -1 21 23 -4 21 3 -21 6 1 20 -9 14 -7 1 -8 -17 18 26 4 26 -31 30 -30 -3 -18 0 7 28 27 -13 2 -9 -10 18 26 29 -3 -24 -7 -9 -30 25 -12 -21 -20 0 27 22 -28 28 -30 -26 8 -3 1 -23 -17 -19 -17 25 32 16 10 -32 30 10 -24 
25 27 5 -1 -4 -32 28 -32 1 -24 -2 6 32 -26 -18 15 29 -19 8 15 -26 32 -13 25 -14 -18 8 29 24 -1 3 -29 -21 -21 -8 -30 22 17 8 29 25 20 -31 -30 9 -4 -21 28 22 30 -14 -27 -14 -30 -11 14 -22 4 -17 -6 -23 -12 20 24 24 -29 -3 10 -16 -25 6 1 28 13 17 17 27 26 15 14 -9 26 -10 -26 27 -22 -23 -20 5 -26 14 13 -11 19 -18 -19 -29 -4 0 21 -29 -2 -20 6 20 -30 -9 20 27 -26 -23 22 -30 14 -3 -31 -30 -8 13 15 31 -19 -28 -23 -31 17 28 -2 20 23 -14 8 -28 -17 -31 -6 -27 -4 -24 -23 0 -20 7 -9 -26 32 -19 11 21 -1 -8 8 1 -17 10 -8 -17 29 -31 0 4 -3 21 13 20 2 -23 11 29 -7 0 -30 -5 14 -21 21 -28 -7 -23 -23 9 9 14 15 25 27 -1 -8 -19 10 1 5 -20 -2 -16 22 -12 19 -24 15 -6 31 -13 -13 -25 18 27 21 4 18 -30 26 1 -15 -7 -16 -22 -5 -30 -1 19 13 -6 -23 19 4 -26 19 3 -7 13 6 -17 4 19 26 -11 -5 21 24 18 -10 17 -17 -30 -31 13 13 27 -27 -8 -16 29 31 -13 -25 
-23 10 -17 -18 28 -5 20 -25 22 13 2 -1 21 20 -25 -18 25 27 -16 3 -5 14 -24 19 -4 -4 23 5 -2 -18 24 -23 -19 -29 18 32 -2 -6 21 -25 25 21 -16 6 -19 -19 7 5 -18 -5 -21 -1 -6 14 -21 -20 23 -19 -1 -23 6 26 -16 0 28 26 -21 -27 -26 -11 -6 3 31 10 6 7 16 11 -24 4 -12 -30 -30 -14 -25 -25 11 -28 -17 10 -28 13 -26 -6 13 15 22 -19 8 -16 16 -1 2 -19 24 1 28 26 -22 -3 29 18 -2 -12 -3 -17 30 9 -20 17 -16 -21 30 -17 12 28 -3 -10 31 16 20 4 28 18 -19 27 2 -9 -7 -20 6 11 32 18 17 -31 -17 6 18 -14 -9 18 26 -1 9 -11 28 28 10 21 -12 -10 20 5 17 15 -17 -28 0 28 26 -3 16 -26 -5 32 -28 1 -21 8 -30 -9 30 -21 -17 -7 25 -18 19 -16 -16 3 3 -6 30 -4 27 -14 29 24 9 -4 16 -6 22 -4 22 1 0 -21 -27 -21 0 -13 -19 -2 19 -19 22 20 16 -21 1 -23 30 -12 31 20 13 6 0 -25 3 -16 12 -10 -21 2 21 15 -14 0 -14 2 -27 -20 14 2 -31 3 -13 26 -27 1 -26 22 
20 -30 -12 13 -11 27 7 -10 -3 32 -21 30 27 10 6 1 -4 -24 1 7 11 -9 3 -1 -16 23 18 25 24 2 9 -19 1 -28 2 11 -20 2 -2 12 -18 4 -14 -20 -21 -13 16 18 31 26 -5 28 -23 -7 -12 -18 -2 -11 0 -3 -29 -12 -20 26 13 -9 -2 -11 0 -12 -25 -26 -3 -22 12 -4 7 -18 11 -3 -2 -12 -14 16 18 -26 31 -7 -30 -3 28 -26 -17 -12 -11 18 7 -4 3 25 16 -29 30 11 -12 5 31 4 -31 -23 -27 -1 -1 19 -31 -2 25 -19 -23 0 18 8 17 31 -15 13 -10 14 27 6 -30 18 -27 2 -23 -11 -30 10 26 9 -21 14 -8 -31 22 -19 -7 -17 -2 18 -8 8 10 30 22 23 -25 22 32 13 -29 -14 23 18 -20 29 -16 -20 -29 22 -26 26 25 14 -9 5 32 30 -26 -17 6 -8 -32 -25 -18 5 16 -16 -5 16 12 7 8 3 -5 -20 -19 11 11 -23 22 -12 32 -22 -16 30 12 1 23 -9 2 -7 -27 7 -12 20 -10 28 9 -11 24 -28 32 3 18 -7 16 31 16 17 -10 27 16 -18 -25 -27 -25 24 7 3 -17 -29 25 11 26 -31 6 -2 4 -26 32 -17 -1 12 11 20 
-31 16 19 31 -26 20 7 -9 -24 4 22 28 -28 -20 -31 21 4 19 -24 -24 0 -17 29 28 -18 -19 23 -17 -15 -21 -12 14 -9 -13 29 -28 -6 32 -8 -11 32 22 20 5 -11 -18 3 -5 -14 11 -26 -14 -28 16 1 -17 -5 -8 -20 17 17 14 -17 -17 -27 -2 -12 -10 19 31 -2 -32 -20 10 -5 -1 -31 6 31 -1 -8 0 31 -13 21 -7 -24 23 18 -6 -7 -12 -13 19 8 -26 -10 -24 5 -12 -20 -30 9 -14 -16 -5 -1 -12 11 3 26 6 18 -22 -7 -11 -18 -17 -6 -25 30 14 -30 -28 5 2 -11 4 -29 7 10 -4 -4 11 -29 0 1 -13 0 7 19 -24 -32 -21 -21 8 -7 28 27 29 20 -10 -21 27 -18 -24 -24 6 -4 -10 -30 26 12 -2 -24 5 -32 -24 4 -8 -14 25 26 12 32 28 -25 22 -32 -4 27 -21 -25 19 -13 -1 -3 -32 -28 8 3 14 -32 -29 -25 27 -31 -12 -27 16 -24 -17 0 4 -14 2 -11 -5 -25 -26 -18 -28 21 17 -14 9 -1 24 -3 -23 14 -16 26 10 -21 1 27 -32 25 -25 15 15 23 9 -32 -25 -6 -14 11 -14 29 25 16 -16 -18 -19 19 -18 31 31 3 0 -18 26 -16 22 
-9 28 27 30 27 -3 -14 2 5 24 14 17 22 -29 -13 29 -7 -16 18 -17 -7 20 -9 14 19 -12 4 -20 0 -19 -32 -19 -24 2 -10 9 -25 -10 22 -17 11 13 -11 -3 -32 -5 1 0 23 29 -32 7 -22 27 -27 -20 15 -3 -26 -17 29 24 11 28 31 -13 -1 -31 28 25 4 28 -19 2 3 27 7 -23 30 16 16 11 3 -26 24 14 -10 4 7 16 29 -4 -18 -28 -11 -16 20 23 -8 -30 -6 -9 -16 17 7 2 17 1 28 -20 21 20 -26 -8 -30 12 3 -8 -13 6 15 -28 -20 26 -13 25 -14 -31 13 12 2 -28 -25 -23 29 22 7 -23 -26 -30 1 4 16 -1 30 -3 21 31 6 9 -27 26 -26 -15 19 -32 -21 17 30 11 17 13 -18 -5 -23 20 -15 6 -17 -20 18 29 -28 27 9 -21 24 21 -14 12 29 -25 5 -16 -16 -27 -20 27 -20 -29 24 16 21 -15 6 2 23 8 -17 20 29 13 -19 -10 -26 -19 23 -29 31 14 18 -26 -1 -13 -2 22 -24 -14 26 12 9 31 1 -18 10 4 1 21 -2 29 25 -14 -27 -15 -16 -15 13 -11 -13 -2 -30 -21 -13 -17 3 11 -8 10 28 -19 0 8 3 8 31 -19 
-9 -14 -26 -3 15 1 -17 -13 -7 26 11 -5 -31 27 -5 -18 -15 2 -26 -13 3 -2 24 3 -16 15 13 -13 1 -4 -30 -10 7 10 -1 8 29 16 -21 6 21 28 10 31 -14 30 0 14 15 14 17 -10 -9 -11 12 23 25 -25 6 -16 -12 -32 22 14 -12 21 26 -22 14 21 -7 24 -4 5 -19 -22 -19 24 17 -12 15 -27 -26 -11 2 26 -17 23 25 -2 31 31 0 -18 -28 27 16 15 -20 2 24 -1 24 -25 -4 21 13 -19 -26 -26 14 11 20 8 17 7 -2 10 14 30 -26 15 20 21 0 -14 21 -25 -9 0 12 -30 -10 21 -1 2 -23 -4 19 -28 -4 -7 -2 -13 -26 7 -17 15 31 2 -25 -21 22 2 5 6 14 2 -19 -5 13 10 18 6 0 5 20 -23 18 26 -8 -22 3 -2 26 24 2 -2 32 20 14 25 -19 -22 21 19 -28 -30 31 17 -9 10 15 7 1 12 25 -30 -24 -8 3 17 20 -12 31 -31 31 7 -19 -14 -2 -9 21 15 -16 23 6 -29 2 6 -9 -27 -13 -23 20 30 -13 -32 -15 29 -3 -18 -5 20 0 -4 14 -28 1 8 -5 29 -24 -8 16 -19 11 26 0 6 -18 6 32 -8 10 29 
11 -12 20 3 -1 3 0 26 -13 -8 -15 -15 -31 -18 -3 7 -25 32 -20 -10 -23 -17 -27 -32 -10 -17 -30 9 -23 -7 18 3 -30 -27 15 24 -7 27 2 -27 -30 32 -27 -23 -30 5 -16 10 24 12 32 10 -31 19 -20 -30 26 20 13 4 -22 32 23 -32 -28 -30 -15 31 -24 8 11 -9 -4 -7 -7 -21 7 0 16 31 32 23 26 -2 -29 4 27 -24 -12 23 22 7 -23 -21 10 1 10 22 -18 29 7 -1 -30 -21 -27 -23 -13 -19 -17 -31 -2 17 -15 -23 21 31 -12 25 22 -12 -25 2 -13 -15 9 24 -16 17 5 -2 28 26 12 -31 -2 -19 13 -4 3 -8 -11 -6 -17 13 23 -4 20 -5 25 -19 -19 -18 -7 15 6 13 -21 7 -26 -11 29 -8 -25 -6 -8 -22 -28 9 -21 16 22 1 4 2 24 27 21 10 11 -25 -7 -12 28 20 8 28 18 19 29 28 -17 29 0 -24 -3 -5 -12 -26 19 1 0 -9 4 -27 15 27 6 -5 22 -22 27 17 -22 -7 23 5 10 15 22 -8 19 5 23 8 -32 5 2 -28 -13 -19 -5 19 -16 -14 -18 -23 -4 3 -1 11 -20 -26 -2 16 2 -9 -10 -19 -29 18 18 -22 17 27 -15 -23 
5 -10 -6 -31 -10 31 14 6 20 -27 -22 2 -32 22 -15 -24 31 -25 24 -32 -2 -20 10 -6 -13 -24 16 -15 29 25 8 -17 -14 1 -3 15 25 -23 -9 -19 -2 29 14 28 -8 17 -12 -12 22 20 -16 20 21 8 -7 -17 25 13 -8 19 -21 13 26 -28 9 13 31 18 11 16 28 -11 -19 -19 -11 5 5 14 -1 15 23 19 23 30 20 5 -28 23 -14 22 0 29 15 29 28 -8 -7 -28 12 23 25 0 1 -3 -15 18 -20 9 -25 -9 9 8 13 12 -14 -18 16 13 28 30 -27 10 19 -1 -8 7 10 -9 -22 -3 -2 2 -8 -2 12 -31 10 -5 -32 -30 -27 -11 8 -11 -5 3 -11 -16 -4 2 -15 26 -5 -4 1 -24 11 -21 -9 -9 23 -15 -23 29 32 8 28 15 29 7 16 -25 24 6 23 14 -8 25 20 22 -9 -23 -25 -19 14 -21 -11 -6 -10 14 -10 25 -26 27 -11 18 5 -23 20 -32 26 2 -4 18 1 -24 22 28 -1 -2 -25 17 -24 8 16 31 27 23 -21 -27 -22 -10 14 -28 20 5 11 -30 0 22 31 -7 -32 -21 16 -27 25 17 13 17 -31 -32 7 24 -32 -15 21 -6 -21 -22 -1 10 -6 32 -18 11 
0 1 -32 14 22 -9 14 -23 -28 10 -28 -11 26 -9 -16 23 6 -24 31 4 30 -18 0 10 -15 23 -14 -16 -10 -6 -8 25 13 -20 27 18 10 25 22 -13 -14 -7 4 20 23 15 7 -30 -13 -16 7 -2 -18 -1 -2 -25 13 -5 18 24 -23 -13 7 -20 -26 -27 24 -2 -14 -14 -22 -15 -26 -1 18 -21 -17 -23 23 -3 27 -23 29 -17 -14 -18 -17 24 18 -8 31 -18 0 19 22 -23 4 -15 19 -28 -15 -4 -24 21 1 6 8 -5 -2 19 23 -7 -7 26 27 7 0 -3 16 -6 -26 29 -7 -4 -17 -24 23 7 -5 -5 3 -4 20 -23 -27 15 6 7 10 1 5 -30 -2 -19 6 -1 -8 -18 5 20 17 -30 -31 21 -13 12 -31 -5 -4 21 5 27 29 9 -16 -26 -27 -2 2 1 9 30 -12 21 -2 2 27 16 23 -6 1 26 -8 26 19 -11 -29 -12 -11 -26 -19 10 3 7 8 30 0 -25 -2 28 23 12 8 21 24 16 -2 1 11 14 1 -3 29 -11 0 -32 4 -9 -29 -14 -2 -26 -15 23 -19 -12 5 -17 -6 -14 25 10 -27 1 16 32 -11 -29 -9 -17 -6 -7 -7 9 -9 10 -13 -24 19 3 8 -29 32 28 2 -6 
3 -10 8 27 16 -20 32 27 -31 21 4 16 21 -27 28 31 -17 -15 -22 20 -22 -22 12 -31 -28 30 26 -20 7 8 -17 -5 22 29 21 -6 -1 15 -2 25 5 -18 4 -11 -20 -11 -26 -29 12 -30 -3 -17 -12 -20 -20 -5 10 5 -4 0 24 17 -25 -12 30 12 -16 25 -23 14 -20 -3 -9 7 20 -20 -7 -21 8 22 11 -9 -1 1 -23 13 -32 12 3 -3 -23 -19 -23 -28 31 5 2 29 8 -1 -21 -31 25 -9 -32 -11 -4 -21 -19 21 8 -6 -2 -7 23 2 -14 -23 23 12 -3 -7 5 -26 19 -13 -23 -13 9 -25 24 17 19 -16 1 -3 5 -21 -1 31 -28 23 -17 0 -1 17 -28 23 2 32 -6 -15 -27 15 -25 13 -28 -19 -3 -23 1 21 -6 9 9 29 4 -10 -11 -28 -32 25 -27 -29 -16 -20 -4 20 -27 -24 17 -4 -9 -30 -28 0 22 -27 -18 25 -27 -9 7 -22 -32 -1 31 -19 23 -4 -9 -26 -2 32 -25 30 3 -11 21 0 -20 -16 12 27 26 0 1 17 27 21 -11 -10 -17 15 27 13 21 24 -25 14 -2 -26 -11 2 9 11 2 -27 1 30 9 -16 5 13 15 17 31 13 6 21 4 11 16 26 16 2 
14 -7 -23 4 -8 -26 -23 -19 2 -24 0 10 7 30 -6 -28 21 4 31 9 3 -29 -20 24 -3 -4 -32 26 0 -29 10 -3 -2 -25 -29 -14 -20 21 -32 5 -7 -12 8 -2 9 16 32 -14 30 21 -10 -3 -23 -26 -22 0 -14 21 -18 -23 31 13 27 -17 5 -6 -21 18 19 25 9 -29 -18 -25 -32 23 -14 -14 28 -15 17 28 -16 -8 -27 21 1 3 18 -20 -8 10 24 1 -20 -23 28 -23 32 -2 8 -20 2 9 6 -14 -18 13 -26 7 31 27 25 23 -17 20 -21 -31 21 29 11 -1 23 -28 -31 -17 -30 3 -23 -21 9 25 17 2 20 -11 -21 -26 -18 27 2 -9 -13 26 -21 18 0 4 -2 11 22 12 -30 17 13 -6 22 22 -16 7 26 -11 -25 24 -17 -24 24 15 31 7 -2 -9 29 13 -14 -29 -19 19 -27 -4 -7 22 18 9 -9 -29 25 1 30 11 -1 9 12 -17 -9 -13 -2 20 -18 -26 -22 2 -29 -31 9 -13 8 31 -6 -7 23 -26 -20 25 -28 -4 3 32 -15 -19 -13 -31 -17 23 -23 30 4 -21 -24 -23 -10 32 -25 15 17 10 -26 -17 6 12 -32 -20 5 25 -19 -17 5 13 -30 14 -4 -14 26 19 21 22 
15 -11 17 17 9 -16 -18 7 6 26 -18 22 -30 -3 -19 -6 7 -24 32 31 17 9 17 26 23 -16 17 -25 -18 25 26 -23 10 18 -19 26 -21 18 25 -24 5 4 -1 22 -4 4 -10 -10 22 0 -31 -10 -26 27 13 30 -1 21 28 -18 -14 21 30 31 -21 9 -10 30 -3 9 25 -32 -13 27 19 -12 32 -19 10 -15 -2 30 7 -23 -26 -31 8 -3 27 2 13 8 20 -31 17 13 11 -1 23 6 6 30 23 -26 1 4 -14 9 -31 -10 -3 -8 12 19 6 23 -13 -7 -18 32 -13 -21 24 10 -26 18 -32 -11 26 18 -14 22 -11 -30 4 2 23 -32 5 27 7 -23 -23 -13 19 22 -3 2 27 16 -24 -15 29 -23 -16 9 27 -6 -1 -6 -9 -21 -2 -23 0 -24 26 -10 -19 18 27 17 -8 30 -30 -25 -8 26 30 16 -31 25 3 -26 -29 30 -8 11 -14 -15 15 -27 6 30 -20 -17 8 9 -23 6 -24 11 11 -20 -27 -29 -4 -31 -15 1 19 -24 -12 32 -12 -15 11 13 8 25 4 -12 10 -6 1 5 25 -3 25 -26 -28 -11 -16 -25 -19 28 6 17 -29 -18 -9 -23 -23 -29 -27 -11 13 -12 -23 19 7 -5 5 26 14 -28 
-6 -13 7 -3 -28 -20 -10 8 23 -24 15 -9 -10 3 -3 -8 32 -1 15 -16 16 1 15 10 -32 -22 22 -28 21 24 9 -7 -9 -26 -10 -17 14 19 -8 12 -16 27 11 -12 14 -16 27 28 18 31 11 6 3 -14 -24 -24 -16 28 2 -9 -32 16 12 -26 -30 29 7 -14 17 25 27 12 -5 -4 10 -1 -16 -16 -22 -12 25 -18 7 20 25 -32 -22 -8 8 -6 13 9 -10 23 25 -7 30 -12 24 10 30 -12 8 1 -7 8 9 32 22 -1 -17 19 -25 16 20 16 2 -24 23 7 -18 -20 -30 11 5 -13 8 -8 7 -10 3 -8 26 -8 -29 -27 6 -19 -28 -25 -10 30 1 32 31 -13 -25 -15 -28 -4 -22 -32 25 -15 5 23 27 10 -29 18 -6 -7 17 -24 -16 28 6 -20 -9 29 12 -18 -4 -7 27 10 -21 29 -30 25 -15 32 14 0 9 26 30 0 -9 -9 -8 -26 14 13 -19 10 29 28 -21 -1 -13 8 -11 30 -15 27 31 23 19 -2 10 8 -16 -20 -20 -21 -8 17 -28 21 -13 -11 -11 24 -9 23 26 15 7 -20 -2 -7 -14 -5 9 -18 1 12 -26 -13 -28 16 -15 22 -3 -8 -6 -21 7 -16 -16 -10 25 25 24 12 
3 17 11 31 8 -2 13 -26 27 -10 1 27 9 18 23 -26 18 5 14 15 11 4 25 -9 -9 -24 -29 -11 13 22 -1 -10 -7 -19 -17 1 -2 -11 -2 5 1 19 7 32 -14 -13 25 3 8 10 -30 -31 18 -31 26 -29 -28 16 -26 -3 18 24 1 -30 -31 -30 9 -5 11 -16 -23 -16 21 28 4 -23 16 -16 -30 -12 8 4 32 -14 19 23 -26 -25 3 -31 26 21 -20 -18 31 -29 -2 -29 16 9 22 -11 24 24 23 9 -26 -22 -5 -19 6 26 -23 27 -6 -15 16 -9 -5 -22 -15 29 19 -14 20 15 18 23 30 -9 -17 8 30 3 12 -8 15 -30 23 -6 -29 12 2 8 -13 17 7 32 17 16 -8 3 3 -23 16 -21 4 28 -29 -12 12 -24 -26 -20 13 -25 -24 1 -26 -7 29 20 -15 9 -30 -17 -18 2 32 26 19 -5 7 10 -10 -6 -25 1 27 -7 21 10 -29 32 -4 -28 0 19 -1 -1 3 3 -11 -18 26 -30 -29 -7 29 -28 7 1 -31 1 3 18 -29 -30 32 26 6 -21 -25 -4 21 -32 -1 -32 11 18 20 -11 -4 15 25 -23 3 30 14 -8 31 21 -6 16 18 -5 1 7 -18 7 -20 12 27 -13 23 -7 
32 -10 20 24 -29 8 26 19 -13 -7 -23 -8 31 18 -9 8 18 10 21 -23 -16 -15 -11 0 15 -31 14 -17 -14 -7 4 -31 -6 29 24 -18 20 -16 -32 -14 22 -21 30 7 24 10 -6 -18 31 -22 -5 13 26 -23 -16 -23 24 -28 28 30 -8 -32 -26 30 27 24 -28 10 32 -28 5 -17 4 -21 4 -28 11 11 15 -3 -21 14 -29 15 -28 -20 18 3 -6 -13 3 1 31 21 7 -10 16 24 3 -4 16 -19 -31 0 -19 4 -6 31 -26 27 24 -20 7 22 15 19 31 5 -6 20 2 3 -19 -13 24 22 8 31 13 6 31 -15 7 -30 -11 16 19 -13 -6 19 19 6 8 -11 2 19 19 30 5 -15 27 -4 10 29 5 -3 -12 30 8 -30 -10 -28 -20 20 -25 30 -11 4 15 26 17 -6 21 27 1 -20 -5 19 11 -15 -5 20 -5 4 -24 16 26 -24 -8 -1 -26 20 25 -6 21 -18 -18 8 31 -2 -20 12 28 25 -28 -6 -16 -9 5 -27 -28 32 32 -13 28 -11 -14 -29 10 -26 -3 -24 -10 21 -26 -7 31 22 -27 -7 -12 5 -26 -2 26 -28 -26 -8 -20 -16 -14 -30 -28 -6 -26 -10 28 -5 -23 -12 28 21 10 29 4 -1 
-13 3 0 -25 26 9 3 -5 8 -31 -4 -15 -19 0 29 -17 -30 10 21 -23 -19 -12 -6 -30 25 -24 -15 32 4 9 -8 -7 14 4 -20 3 9 -9 23 5 13 31 -9 4 -25 1 -28 -22 -9 32 -2 16 23 -16 1 21 -6 -11 30 -26 31 -21 23 -2 26 13 -16 13 9 8 -15 -14 22 -25 4 4 16 32 14 24 -16 -22 20 -3 27 -11 -29 7 -32 13 -16 -3 16 -9 5 17 -32 -29 -4 -17 21 9 -13 -30 -5 24 -28 1 -22 -22 16 -4 20 -12 -28 -4 10 -3 11 -22 -17 21 24 28 1 -20 -22 26 -5 9 -13 29 -29 -13 -27 23 10 -17 3 -9 21 -31 -25 -31 23 7 3 -20 30 -23 15 27 22 25 5 -4 8 13 -6 4 -4 30 -15 -13 -11 -13 5 -16 28 14 27 -5 31 10 28 -11 25 26 11 -22 0 22 -6 -10 25 -9 -30 -12 23 -8 -16 -8 2 30 16 -18 15 30 22 18 -1 26 32 -13 25 8 -10 -12 -3 11 8 3 17 24 18 -31 4 5 -18 19 -26 -18 -9 24 -23 -9 7 32 -7 20 -18 6 -17 18 18 -17 -7 -15 21 6 30 15 5 -16 10 -3 -23 -7 21 28 10 -19 -30 23 -20 24 
8 -20 3 -13 21 31 13 -32 -3 20 13 -19 -30 -16 -19 27 4 32 21 -15 21 -32 16 -12 -1 14 -21 14 -10 17 -7 21 -10 -20 -4 -9 -4 -29 24 -12 30 3 -12 -14 17 -27 0 -2 29 30 -7 10 31 13 13 -18 32 26 -15 4 11 -23 -6 15 -14 9 2 -1 -4 -22 -27 -16 12 -24 -19 -16 -5 -30 32 -5 7 11 10 32 -9 -27 -7 -31 -20 -29 -16 3 1 -12 30 4 18 2 8 -5 -14 7 -6 -22 -31 -29 -25 -11 16 2 -30 -29 17 18 -6 32 -30 -24 -8 -15 -9 -30 1 30 0 -26 11 -32 26 15 -13 17 2 16 -24 -28 31 -30 1 14 32 -5 10 0 26 -7 -28 29 -22 13 9 28 -27 15 15 25 3 10 -3 -15 -7 -26 20 -21 -9 -10 -27 21 24 14 2 7 -4 26 -7 -24 -16 17 -26 -3 5 -9 24 32 -2 -16 -27 -28 26 8 11 -3 18 21 7 -4 -2 -25 31 -14 30 -23 -21 -4 -18 27 -19 18 -29 -8 -1 7 -4 11 13 -24 24 18 -9 9 -18 -14 -30 17 15 -22 28 6 26 -8 15 20 12 6 27 21 -23 -9 15 26 24 15 4 -10 -4 1 25 -11 -23 -4 -14 -10 18 23 -30 -19 
-13 -22 -32 -14 28 0 -28 28 13 16 15 24 -32 27 -6 -3 -19 29 -15 -30 -4 19 -10 -14 -7 13 7 -3 -28 16 -27 30 -24 -11 -4 11 -19 -28 -15 -6 -8 31 -19 -22 3 -9 1 -23 32 -1 15 -24 -3 -21 19 9 -12 9 4 -28 13 -21 11 -2 -5 -6 -30 -12 29 -21 18 -24 19 18 -22 15 17 -11 -17 -7 -22 -29 5 -1 19 25 20 -28 -17 11 -18 6 -3 -24 -6 20 11 -9 1 25 -11 17 19 -11 1 -32 -17 27 -25 1 15 -8 14 28 -30 -20 -13 -25 -16 -32 -18 3 -24 -5 -7 -12 -2 -30 11 25 -24 14 -11 -2 29 -27 1 -12 13 19 -21 28 11 -6 -25 0 10 28 -25 14 -10 15 22 -1 28 21 -6 13 29 -4 2 -22 -29 14 18 21 -13 13 32 9 -10 6 -7 -32 3 27 16 -19 -19 18 -9 31 -17 13 -27 10 -24 -11 29 7 -29 14 -7 23 -8 6 31 -6 26 -14 -21 -19 -5 -20 -25 -20 -6 -2 -7 -4 29 -11 -15 -28 19 -18 -3 -27 14 -24 1 -10 18 -15 21 -4 11 -1 -7 13 -18 29 20 27 -2 -3 21 -29 -3 1 -31 22 -23 -17 -7 -7 -22 -9 29 28 9 32 6 27 21 -13 
-26 -12 18 4 31 28 31 -24 -10 -3 -25 -17 -23 3 22 11 9 15 -10 -14 23 -24 29 28 -11 32 -17 -5 -14 27 0 -13 -32 31 -21 21 26 -4 -32 26 -8 6 -12 18 -4 29 24 -21 7 -18 -25 32 -15 -27 -14 6 25 3 -1 -1 6 19 -25 31 26 17 -2 21 -6 -2 21 -11 13 28 -10 -17 -11 -28 -13 27 16 29 30 10 27 -21 -25 -13 32 22 14 1 15 -31 -2 12 29 17 13 7 -13 -22 -22 -29 -4 30 11 -28 -4 -2 8 4 22 -1 -31 -11 -20 -21 -31 12 1 -6 22 13 -7 14 -21 21 28 -10 8 -9 23 31 -6 -2 17 19 -21 -15 18 -27 16 -18 -25 27 -17 22 -22 5 27 11 21 3 -30 30 -28 18 0 24 14 12 8 16 -13 -23 -30 24 -8 -30 17 -15 28 -2 -25 -17 -15 26 -24 11 31 -1 -28 30 15 -2 17 13 4 5 -6 1 -18 -31 26 30 -13 -22 25 -25 25 17 28 -5 8 24 -15 -7 3 32 30 -22 29 -32 7 11 -16 -29 -3 -28 -24 14 -4 1 5 -8 12 -9 -25 1 -9 -14 10 -26 10 0 -17 -16 -15 9 5 13 -31 16 -26 18 -14 16 20 -9 -1 27 -13 9 -5 24 
-24 29 -20 19 -24 23 4 16 -21 -31 -5 -14 -25 6 -25 -12 3 -24 1 0 0 -11 17 18 18 13 -31 0 -25 -13 -16 -32 -21 -10 -27 -16 -4 -13 29 19 30 -32 -29 -30 -22 -9 -9 -31 17 20 13 14 -27 9 0 3 13 -32 5 11 30 4 -14 -16 26 -19 -8 -6 -24 4 24 -1 -28 -16 -26 22 3 16 -32 -20 5 23 -11 30 -28 -12 -8 10 2 22 -28 -17 26 7 -16 13 15 21 15 -5 8 32 12 25 -3 1 5 -10 11 -17 -13 1 3 -25 -3 22 3 -26 -12 -30 -11 -10 31 -26 -3 -18 -17 0 7 -21 19 26 14 -11 -25 12 26 -20 17 -18 23 12 6 -19 6 -25 28 -26 4 -10 -6 31 18 -30 -13 -15 -27 5 11 -13 -2 -27 16 -15 26 -4 -14 -6 8 21 6 11 -7 -5 28 -18 -8 -10 -13 29 -14 -14 32 3 -22 12 10 -10 -14 1 -3 -27 20 -19 -16 19 -23 21 -16 5 17 -29 18 5 18 31 16 27 21 11 16 32 -25 -21 -2 32 -25 -13 -22 -29 12 -25 -29 -11 -29 -25 -17 -23 12 -17 30 10 -21 -22 -15 31 -7 10 -13 26 -15 15 23 -18 28 -14 -25 -14 2 -28 25 -7 -24 -8 23 14 
30 -21 32 32 -12 0 26 4 24 6 -24 17 -27 -18 -23 21 15 -21 14 15 -4 -26 -18 -5 31 9 -9 31 -31 17 -23 7 -3 -14 17 24 -12 13 -16 22 -32 -24 -25 -11 -25 -16 -3 -2 -32 -21 17 -4 -19 -3 25 -18 4 30 -30 -17 -23 -7 1 -4 -20 -21 -3 11 -26 -18 3 8 30 5 -4 31 2 24 31 18 8 -17 -16 30 -31 26 -18 -7 -28 -8 6 30 11 -30 -17 -18 -10 -6 17 -13 4 -2 2 -25 22 22 -18 -13 8 -2 4 -18 -11 -2 -20 -5 -29 5 10 26 -29 -28 -1 13 32 29 -21 23 30 5 -24 2 -17 30 -24 29 -8 -20 -4 24 28 -8 25 -21 3 15 -29 8 27 2 7 0 4 12 18 16 -3 -23 -2 4 -8 -19 -9 32 20 -11 7 12 13 27 -30 -23 -15 22 -12 -26 0 -14 14 -15 22 17 17 -6 6 14 8 8 13 3 22 -1 -22 17 17 -4 -5 -11 7 -28 -25 8 6 20 32 11 24 4 -22 8 2 -11 8 7 -16 -29 3 31 22 -10 -32 8 27 32 -4 5 2 -31 -2 -3 -7 6 4 18 11 -25 10 24 15 -15 8 -23 26 -27 6 -29 -28 19 -28 6 -18 -23 -32 -29 20 -16 
32 -13 7 4 8 -4 -15 -23 -12 7 18 -31 -7 1 31 -16 18 6 26 -8 -15 -16 5 18 7 -3 -14 23 26 31 6 18 -21 -18 17 -30 -7 -13 32 11 -18 -31 -6 -20 15 -5 -19 15 -2 -20 -32 8 5 -19 -26 -4 -21 8 9 6 -27 -22 15 -4 -21 -13 30 12 6 -21 -11 -16 0 -30 -4 19 16 -5 11 -22 -4 -9 -2 -24 7 28 21 -15 27 -32 -31 25 24 -22 -7 8 29 -4 -24 1 7 -28 31 -26 26 -26 -20 -9 18 9 16 7 -4 -13 12 -30 -11 29 23 -22 15 -2 -7 -4 -29 3 -1 -22 31 -6 17 -22 12 10 12 -1 32 22 26 -31 -3 -16 0 -3 10 -6 -5 21 -8 -32 0 22 -24 -26 19 28 16 21 6 -6 5 6 14 -4 8 11 30 -20 -4 -19 -4 -18 -25 -30 -2 15 -18 -30 -26 31 22 29 -2 19 11 -15 -20 -2 -21 14 -21 0 -28 -18 12 -5 13 -1 -26 -7 -16 3 17 -6 -23 -17 11 26 -27 -2 -29 -10 17 25 6 0 -32 -12 18 -15 -18 -22 5 -25 23 -7 -18 -19 -21 -21 10 -16 -22 -19 -19 -20 -5 3 -30 18 -2 30 -27 23 9 11 3 29 -17 -8 12 -28 -16 -4 29 1 
-18 -16 9 -7 -11 -21 5 28 17 -20 -28 18 -10 10 -17 9 11 0 18 -2 27 18 28 11 -27 30 7 -29 -13 -2 21 -9 9 6 -14 -13 26 -26 -30 -28 -15 -1 -32 -19 25 -14 -19 0 17 29 -32 20 19 27 25 31 7 -24 -22 21 -14 12 22 18 8 -30 15 25 32 -30 16 -3 20 -17 22 4 20 25 4 16 -12 23 1 -4 7 26 -9 12 -26 3 27 27 -15 -16 -27 -11 17 -30 -14 -25 11 -12 -22 -23 19 22 -28 -13 -15 12 -24 -4 2 6 13 8 3 -26 -13 28 30 -19 29 20 -23 -15 24 7 5 -22 -11 11 0 -11 -15 28 -18 22 25 -20 -32 15 30 -14 -27 -2 -22 -7 31 4 -28 3 -15 -26 22 -28 -19 -31 22 -14 -8 -32 -9 15 12 17 2 2 -5 -16 -6 -26 -24 -6 13 17 -19 -3 -26 -24 -14 32 -23 11 11 -19 -2 18 30 -16 -29 -14 -21 -20 24 -10 17 -9 17 9 -12 1 -26 -22 -10 22 -7 -1 -6 -25 -7 2 -5 -4 8 -22 22 -32 -21 -24 16 -16 32 10 -9 21 10 11 -8 15 27 10 -7 -19 24 25 13 -27 -23 3 7 18 -11 -5 -17 -3 -2 7 8 18 -8 3 6 -16 24 -18 
-17 -14 -24 22 14 -22 -30 -20 -23 8 -15 -31 25 1 -13 28 -13 3 -2 25 11 23 31 1 -5 8 1 -15 -10 -19 12 23 27 32 30 -11 22 -21 -2 -1 32 -4 -5 -30 -6 -7 -8 -29 14 20 -30 -22 -13 -9 9 24 -29 -6 -6 6 -20 -19 10 26 17 -10 -30 -22 -13 -18 5 10 21 7 -15 2 -31 30 6 -5 31 18 -11 5 -32 25 20 25 6 21 29 -3 -19 7 7 0 0 11 -24 -7 -32 14 26 4 -17 10 14 28 -20 5 -30 23 -12 4 7 -4 -5 23 -1 -23 10 -21 -6 -32 -23 20 -6 15 5 -15 -7 -29 27 -20 31 15 -25 1 -29 -11 -14 -30 -7 -4 7 18 31 25 -5 16 -2 27 12 -17 -6 22 -30 -24 9 -28 -21 9 -11 29 26 2 -28 29 16 14 1 -19 21 -23 20 1 -14 -12 12 -26 -15 -18 11 0 -14 -10 -6 20 24 9 -31 -28 -8 -11 -20 32 -12 31 19 12 12 -25 32 -27 -1 -14 17 -12 -21 1 -20 -25 -11 32 -29 -17 -31 6 -27 4 1 -11 4 8 -11 -14 0 27 10 -8 29 -5 1 -4 25 30 -31 24 27 -24 15 -19 -17 30 -28 -1 -6 8 -13 24 9 -30 20 -9 0 -29 
-6 -16 8 14 16 -4 -31 -25 7 15 17 -14 30 -11 -17 -27 -31 14 0 2 2 -5 -2 -6 13 17 -27 30 -16 -22 28 5 -18 22 25 -29 -32 13 25 -22 30 -31 -20 26 10 15 7 -27 3 7 -5 -6 -25 -12 16 23 -1 -5 4 -31 -1 32 22 -17 -16 14 -32 -24 -1 -29 22 31 -6 -23 -9 -19 -32 19 -7 -8 -17 -24 -3 -15 18 1 -32 25 -28 -17 1 -12 -9 0 5 -6 -13 -32 5 -32 19 4 2 -22 4 14 -10 5 -21 -13 16 -17 18 8 24 -22 -19 -30 11 -19 -8 -10 -19 24 22 26 4 -5 29 27 4 5 10 -31 -7 -18 -28 -15 23 -16 -27 9 19 -14 0 -17 -3 -14 -14 -23 32 27 20 1 24 29 32 -26 -12 23 11 1 13 -31 4 -31 7 22 -23 31 0 -9 0 24 20 -7 0 1 -1 10 -3 -4 9 12 20 16 20 13 -31 30 -8 19 -28 10 16 -12 -16 -18 16 -18 -13 -4 8 27 -10 16 26 -9 -27 29 11 9 28 -25 4 4 -6 29 -4 6 4 -20 27 -5 -3 27 18 23 -18 8 -8 32 -20 -28 -23 -9 -26 -6 13 -17 -23 16 -32 -15 27 3 -1 -5 -21 23 -31 21 29 14 26 27 
-14 32 27 13 -23 20 20 1 -4 -12 6 10 17 -29 -2 -24 5 -29 -5 3 -3 -22 23 -14 -18 -23 -26 31 -22 -25 31 -7 -9 19 -30 9 -18 -22 -25 -31 -21 -25 32 -29 26 2 32 -29 -16 -19 -18 -13 -22 8 0 1 1 11 8 -17 -28 6 9 -4 -26 -28 22 10 -4 -14 3 14 29 18 30 -14 -20 -1 -16 30 -5 -25 15 -19 -30 -7 0 32 -12 -17 -6 0 9 -8 -27 21 24 29 2 11 -25 28 -7 -17 1 25 -11 0 20 -22 0 18 14 32 1 22 4 4 21 9 -17 -30 2 30 7 31 13 20 6 -9 8 -10 -4 -4 21 -9 -21 -24 4 20 -23 -19 21 -4 19 16 -22 -18 8 -1 26 26 4 -32 -19 -3 -9 17 -20 -16 30 -7 -14 -11 -27 19 -12 4 -27 14 -28 -11 22 5 3 -12 -21 -12 -2 -15 -23 -22 26 25 -17 -22 -5 31 -4 9 -9 24 -27 -24 16 -16 -20 4 27 22 9 -31 -9 5 27 29 29 -23 18 -8 -23 -9 -6 -12 7 -8 -21 -10 20 15 1 -20 7 31 10 -19 13 -7 28 -30 -10 -27 -13 16 5 25 12 1 -9 -29 22 -22 -30 -25 18 7 28 13 -7 -20 25 -9 25 32 11 -24 
-27 1 21 32 30 23 12 -8 30 -29 11 12 2 2 -29 17 -18 13 -13 -4 20 26 -5 21 15 29 -29 -6 19 -31 -8 17 10 -31 -5 0 22 -30 -16 -6 12 31 18 -9 -10 31 -23 -13 32 26 3 10 -13 -17 24 -20 3 15 27 4 9 -30 -20 -9 22 -30 24 10 8 -6 -15 30 -18 -22 24 19 -17 16 24 28 18 28 -10 14 -31 9 19 10 18 -16 25 -7 -17 5 -23 26 15 -14 24 20 26 -10 11 16 -10 16 -27 28 -8 24 15 32 18 21 18 12 -7 29 18 -10 -6 17 32 24 6 -22 15 -21 -4 22 -9 21 22 -29 23 -17 32 21 -5 10 -15 -32 -5 3 -9 14 12 4 3 23 -15 8 -11 -20 14 29 2 5 -18 -10 8 -19 2 -26 9 8 21 6 28 -1 -29 1 0 5 23 24 -9 21 23 -13 21 19 -10 -30 16 -11 -9 29 -32 13 24 0 17 23 19 21 1 -14 -18 -11 20 18 6 17 -8 26 -30 -25 23 -8 -20 32 5 2 26 4 4 12 -18 -28 21 14 13 22 -15 -31 11 11 -14 18 -30 -30 7 -15 10 8 -28 -26 11 -29 -25 22 15 31 21 16 -9 -24 5 -13 23 5 21 9 32 20 
10 -31 -26 3 -1 -2 -5 -10 -17 28 5 2 4 17 -27 28 16 16 -27 -19 15 -4 -23 11 32 -18 1 15 -28 8 27 -4 -21 -18 -32 -11 -20 16 29 32 -10 -8 -23 25 -17 -2 8 11 29 -21 -28 24 29 32 -14 13 12 29 13 27 6 26 -19 -10 -31 -25 -14 4 22 11 -24 -21 -1 -14 19 -13 -7 19 14 -18 -9 -18 -10 19 -2 -12 6 17 -12 19 18 -11 21 3 -15 -3 31 -3 -25 -20 -11 13 1 28 -32 -25 2 13 23 3 21 -2 29 -22 17 8 22 1 8 26 8 27 -23 -12 -20 -16 7 -8 9 -21 25 -1 -1 24 32 32 0 -15 -25 -32 -8 20 -13 10 -3 16 -27 -16 29 6 -9 2 -14 18 -28 14 25 13 -27 -18 16 -17 8 11 -29 13 13 10 -21 16 23 -26 -3 -20 -11 11 6 22 -14 -13 -6 -6 -32 -5 18 2 12 -16 21 -13 29 22 -30 0 -4 -9 -15 -16 -13 -7 9 -5 9 -5 -30 -1 28 29 -12 28 -9 -1 17 -7 8 -12 20 -22 -13 21 11 17 -20 21 -21 19 19 15 24 25 -8 29 19 27 -9 -16 29 26 26 -23 -29 31 15 -16 18 -17 -1 24 -9 21 -29 -6 -4 -29 2 25 
-10 -16 11 16 9 20 -20 1 32 -18 0 -8 25 4 7 29 -16 22 0 11 18 -26 -21 30 8 -27 -18 -20 0 -30 24 19 -8 32 -32 -26 19 -27 -19 -21 14 -24 -11 -3 -15 17 10 9 -11 -8 -20 -6 -2 -30 32 10 -6 -6 19 3 27 27 -6 11 32 22 5 -27 -14 -18 -30 7 -4 -16 8 -17 20 -12 21 -3 30 -4 5 -16 3 -7 9 -28 -8 0 -30 8 23 -8 -16 -11 16 -2 0 20 15 21 -15 32 11 -24 -28 -29 1 -24 18 -32 -26 32 -24 -8 -2 -24 -19 29 4 3 -3 -19 12 -22 11 5 -8 -27 13 -19 -22 -24 -19 -17 -1 29 -16 17 8 -21 -12 -27 -32 26 -14 7 -7 -4 -19 -32 6 3 -32 -11 22 29 0 -6 28 25 -16 6 6 -24 18 -14 -1 18 13 28 31 26 -16 21 15 6 2 4 -13 24 -16 23 7 -10 -15 10 10 23 -16 19 14 -10 8 -22 -30 25 -18 29 -8 -3 -7 -15 26 25 11 -27 -13 -2 -6 29 -2 -32 32 1 -13 -31 13 -16 9 -8 -10 -7 19 10 17 12 30 -14 15 23 32 17 6 30 -25 32 -25 -8 -9 -6 5 -27 -1 -28 -17 1 -24 -6 -1 7 -10 -9 17 32 
4 -28 -7 15 -32 21 15 14 -18 -25 -7 -5 32 21 4 12 4 29 4 -28 8 23 6 -5 -28 -16 -7 -13 -18 0 0 15 -4 -14 21 10 -3 -9 20 4 27 2 15 2 -23 -25 -1 27 -31 -25 21 9 22 -20 -16 -23 22 -24 -3 -23 -24 -22 -27 -28 -5 -19 -2 28 -26 32 -19 1 -22 18 13 2 14 -26 -20 -27 -28 -2 26 -11 -24 7 -2 -31 27 -9 -8 -26 -2 -14 -16 -27 -13 32 -24 -6 8 -19 11 -11 -25 -6 27 -8 12 -3 -15 13 25 -14 -7 19 -21 -16 3 -23 -14 25 -26 -13 12 -7 -22 8 -21 18 -18 16 -6 -32 32 11 -2 30 20 26 -17 19 -8 24 -14 2 31 3 19 -16 -25 -16 15 31 24 -17 27 29 4 11 31 0 -21 10 2 -10 0 29 14 -16 -9 -24 4 20 26 -22 -16 -9 -29 14 19 -5 10 -30 -32 25 2 -23 21 -15 2 3 28 2 -27 -25 9 -27 26 5 5 1 16 -21 -4 -12 1 17 23 30 -24 -20 -17 20 -1 -25 23 20 -24 -22 9 -32 -10 -25 -2 -18 -15 15 20 11 21 9 21 -28 20 31 5 -5 -31 -26 -3 -2 -20 7 4 -3 -15 -25 28 17 28 0 -3 -1 -30 -27 
16 -9 -20 -25 13 32 29 15 27 30 5 -7 -19 -21 21 20 26 21 19 -4 -7 19 10 3 16 13 25 6 -26 -30 -13 -10 -10 -14 -4 -21 22 -10 4 25 -26 3 25 -16 18 -19 10 -2 -21 -28 7 -26 10 -30 31 -20 18 -25 19 -27 -25 -25 -26 -7 -10 -18 4 4 7 25 23 -4 9 3 20 25 29 -25 -27 -32 -18 18 3 5 -31 21 25 7 10 9 11 17 25 25 -21 -23 -19 -3 9 31 -5 21 31 2 -15 5 16 -12 29 -14 14 10 -17 -23 19 4 30 -2 -29 -30 16 -9 15 -31 31 9 -16 8 -14 9 -6 -13 22 -14 13 -19 29 -9 20 -30 22 -4 18 26 -20 -6 2 8 -8 -18 25 -8 -2 16 30 -13 -24 -2 29 -10 -22 7 -20 1 -32 -32 20 -24 17 -17 -18 -27 -21 23 -14 16 -27 -21 -11 24 -32 15 17 -7 -24 -17 -26 10 27 -5 -27 -14 31 -2 -25 27 28 -12 12 19 -1 -17 -8 20 -13 25 -31 -26 25 0 27 -6 28 -2 -30 4 -14 -26 0 18 22 -9 -6 12 3 24 15 -10 0 27 -12 -4 -27 12 2 27 32 -32 -7 -32 19 -17 -7 11 23 -1 4 -29 -7 -19 -3 14 4 -1 32 -20 
5 -11 -13 -8 -16 -25 31 -13 -14 -29 11 5 5 -1 -6 -26 -32 19 16 -8 -27 27 7 32 -4 5 18 15 6 -32 3 -22 12 -29 -30 18 10 15 30 8 -21 -4 -25 25 30 26 -1 21 -29 5 0 -22 31 32 19 10 -27 18 14 -23 -2 6 -10 6 -18 -2 -13 -13 -5 -12 -17 -20 4 30 -2 32 21 -3 13 -1 31 0 -7 26 -16 -11 -6 11 9 -28 -28 7 -22 10 -7 13 -13 -3 -32 -19 2 -25 26 -5 -27 14 26 15 14 25 15 32 28 24 12 31 -12 -28 32 3 -6 5 26 -8 6 -22 -25 26 27 -12 14 14 14 28 -23 1 17 19 -18 -24 18 -16 -11 15 31 -14 -19 24 -4 24 -30 -28 -30 13 4 -25 -1 -26 12 -21 -24 4 -6 -32 4 -29 6 11 10 -2 8 2 29 -2 24 20 9 -2 19 -16 -2 12 -27 29 30 -27 14 -31 -19 8 -16 -4 24 0 -25 -5 17 4 5 0 0 14 24 -12 3 -18 21 -20 30 0 18 -13 31 1 13 -2 12 -1 -24 -18 -20 20 4 -27 -32 16 -12 12 -32 -14 27 -27 -21 14 18 6 31 4 -3 -17 -1 6 -21 19 25 12 -30 2 -2 22 3 -8 2 -7 -5 -26 
22 6 1 23 -9 2 -27 26 -7 17 -27 -31 -24 -3 17 -32 4 -15 22 30 13 -14 32 -18 31 -5 -12 -29 -2 9 -32 -13 26 -24 0 16 -21 -18 -8 -26 -26 -31 15 -23 23 16 22 30 17 25 -10 19 -24 25 20 -7 -14 11 -12 16 -19 -6 -26 -1 11 14 25 -17 -12 31 -20 7 14 -12 -2 6 -32 25 4 12 6 -11 29 -31 -29 -15 -17 13 -32 32 -29 12 18 -24 8 -22 20 -20 2 15 -1 23 -10 26 14 -12 -32 21 -5 -12 28 -25 -23 -11 -31 25 -27 -1 32 -29 21 -7 -2 -21 26 -23 4 -3 6 -16 21 -4 -12 16 16 11 19 10 -30 -4 23 16 25 -6 -18 29 -4 -28 -15 -24 21 -23 -25 -17 32 -8 9 -17 -31 26 0 17 -24 -32 16 17 -12 23 16 27 3 9 24 -28 -22 -18 27 -21 30 -16 -24 8 0 -32 -9 -26 17 -26 -26 -20 32 11 26 17 -26 -17 30 -17 28 -6 28 29 30 -24 2 -27 31 -10 -16 -17 20 28 4 24 -20 4 -24 -20 -9 30 8 11 12 -25 -23 7 -3 7 18 28 31 5 30 30 -21 -12 14 -12 6 -29 17 23 14 4 24 -6 -22 16 -7 13 8 -7 -11 32 24 -30 
-15 8 -12 13 11 6 -21 -4 -12 -7 -3 13 25 -30 26 -22 2 -16 -1 1 18 -21 -19 -22 -31 31 -15 24 29 -7 -26 13 -17 -6 -6 -30 0 30 31 -22 15 -10 -15 10 24 16 26 11 19 -14 20 2 11 -27 20 23 -6 2 3 0 -16 -18 -22 -25 8 6 -22 9 -30 17 -14 -23 8 -20 17 10 -1 4 20 -1 -16 -14 -20 28 -1 -1 -22 -22 -27 10 2 -24 12 -16 9 2 8 -6 14 17 7 17 -15 9 9 17 26 2 29 -24 30 29 -29 16 -28 -15 19 17 31 0 -2 -4 4 5 -17 17 -26 -10 7 -32 -9 31 -8 -30 5 21 -18 11 -17 -7 19 -8 -9 -30 -21 -1 32 20 -11 14 1 2 -14 -9 -23 20 -25 -32 18 20 -5 -2 16 -5 -15 -3 -14 -30 20 -21 21 27 -28 12 -32 -1 7 7 -28 -1 -6 -26 8 -3 -15 12 -29 -6 0 -20 -29 5 -26 -29 -3 32 19 7 -28 -11 23 -25 18 32 -29 24 21 23 26 8 11 -7 -21 -12 -20 -30 -32 26 20 26 10 22 -26 -5 -8 -10 -20 26 16 -9 -6 11 12 22 17 -21 -25 -25 -29 10 -21 18 -18 27 -17 -31 -26 16 26 -29 -20 32 28 -14 -32 13 
-27 -2 22 -4 13 -14 -22 -2 7 -1 18 -26 -27 -10 -23 29 -5 29 -8 9 22 25 -14 -11 18 13 19 -10 8 -9 -10 -20 3 -20 6 -7 -32 32 -9 29 -12 -30 -31 32 -14 21 -6 -19 -17 -4 -15 0 -23 -13 -32 25 17 29 9 27 20 17 4 9 16 32 -14 24 30 -19 -14 1 27 4 31 2 -27 -27 -17 27 2 -23 -31 10 27 6 -30 18 -9 20 1 11 -23 4 -20 -9 16 -13 9 28 12 -27 -3 -30 -22 3 -5 23 27 -32 -27 -7 22 6 -22 14 -25 -9 -22 24 30 19 -27 -19 -1 -6 -17 -11 -11 -8 17 27 2 -1 4 22 -6 5 7 -11 12 4 -13 29 21 31 -21 11 24 0 5 -11 -32 -8 29 -25 21 -5 -30 17 -14 18 -25 29 7 -16 0 31 -32 -16 15 -26 -28 23 9 7 -27 -17 -14 -32 27 9 -12 -22 31 22 32 -7 -30 5 -18 17 32 -14 -20 -32 -27 32 -1 21 5 -28 -13 -15 12 -19 -3 -23 -16 -32 19 -25 5 -23 32 16 27 -2 -17 8 -29 -15 -29 -11 3 2 -29 21 -32 20 -9 16 -19 -13 -11 18 -25 -7 -8 22 -1 -16 28 -25 29 -32 16 27 32 27 8 14 -28 -18 9 -18 
-8 -14 -22 -4 7 -23 15 26 -14 -25 -11 30 -12 3 -31 -29 -17 16 26 -22 -31 12 -16 17 -5 27 -16 -22 -16 0 25 -1 -11 18 -28 -19 19 -19 11 -10 -31 -11 -23 32 2 -15 3 -6 -13 -7 14 7 18 -4 29 3 -32 30 12 -18 7 11 -8 -2 24 -12 -4 -2 -9 -20 13 -4 -2 11 -3 0 23 23 14 7 -21 -17 -8 2 32 24 -27 -13 -21 32 29 21 -14 18 12 -5 26 -26 16 18 29 11 -20 28 2 -1 17 25 -9 -6 -6 -20 24 -32 -29 -12 4 9 30 -21 -13 -8 -30 -21 31 -2 -20 7 -1 11 2 12 5 31 26 -19 10 -29 9 13 -5 -28 17 29 -27 -31 12 -9 31 18 2 29 32 1 -2 25 -24 -5 3 -14 -21 2 -17 13 -24 11 -22 -15 -14 11 25 29 2 -4 10 9 -12 22 12 9 -12 -13 9 19 -4 3 -3 -32 -23 22 -15 24 -31 -30 -4 -22 -32 31 -12 -22 -9 30 22 -15 9 17 10 1 4 -22 -19 14 -2 22 10 -23 -14 8 12 21 28 8 11 -9 -30 16 -25 -15 11 -18 -10 30 32 13 11 -13 -4 -14 -26 9 22 -8 18 14 -27 17 15 29 -3 -11 27 22 5 -32 0 -7 
-5 13 -31 -6 14 0 -20 24 14 17 7 -11 -28 -7 28 -11 -1 11 -7 -7 -28 30 16 -9 29 -22 28 29 -14 -28 -7 19 20 16 5 20 -31 11 30 -12 1 13 -13 -25 15 -24 31 -28 29 13 22 -14 -11 19 -19 -21 28 -27 -32 24 28 10 9 27 -1 5 16 10 -3 -11 2 -24 28 -28 -27 -19 31 5 -8 14 -11 -16 -12 21 -23 21 -18 -17 -25 -7 8 -22 -27 -7 -13 -1 -7 26 -8 -5 6 5 -14 -17 -5 -1 10 26 14 30 27 -25 -11 -24 -7 -2 -13 9 19 13 13 24 13 -5 28 20 -7 19 14 2 5 15 4 29 -28 11 -26 1 8 19 -17 29 -20 27 7 19 -8 -31 17 -10 9 14 12 -25 17 27 -19 -8 -26 -19 1 4 15 -8 31 -12 6 -28 12 -14 7 12 -22 16 8 32 14 26 17 -17 -18 18 -21 14 10 -20 -1 -25 -29 19 32 -6 -1 -9 7 -8 -31 -26 -29 8 17 13 12 22 5 14 -26 9 9 -1 -18 -2 -24 -8 -3 -24 -11 -28 28 -21 -14 24 8 27 -2 -30 15 -23 28 4 -32 -27 -7 -27 -24 31 -15 -29 12 -4 28 -13 -14 -7 20 5 -22 -28 24 32 -6 -27 3 -4 -13 4 
32 -3 29 21 11 25 -31 6 32 10 -3 -5 -22 -31 20 7 -4 -4 6 14 11 19 -2 -8 31 -14 -30 -19 -17 -9 15 -28 16 13 -4 23 -13 21 -25 1 -3 8 24 25 19 18 -32 -30 -10 -15 -6 1 13 20 -5 -20 14 17 21 -32 -14 -32 -12 -13 5 -8 -25 18 -9 -26 -2 -20 28 -12 12 3 16 30 -15 25 -3 -27 17 -8 -6 -1 -13 23 -32 23 28 28 -17 -28 32 -5 30 28 29 6 2 0 -27 10 17 -5 23 -29 7 22 17 23 4 0 -11 30 27 -31 26 28 -32 -15 14 21 -3 2 -27 20 31 14 -13 17 -20 15 1 0 -24 -30 -10 17 -2 14 -32 28 3 -18 -6 30 22 29 -28 -28 24 -14 31 1 20 -22 -27 15 30 -16 -10 9 32 -3 -32 8 3 -8 25 -19 -26 -22 14 -19 -9 25 19 25 -1 -25 -2 -27 -32 9 -22 -13 5 -25 14 -12 17 15 -9 14 -20 29 -18 13 23 20 -31 7 -31 8 15 26 30 -5 -15 13 16 -23 15 10 -15 -29 26 29 27 23 21 -4 27 -7 -2 8 -1 -16 -21 -16 25 -21 -9 0 9 -26 -6 -27 -18 30 -32 -5 22 -32 30 -3 -31 19 13 -23 -13 -7 6 -27 
12 -24 -19 -9 -6 10 -32 32 -3 17 9 -29 31 24 -18 -31 -19 -5 -28 -17 24 -27 30 -18 23 -5 -29 -22 -24 -5 0 9 3 27 -17 32 6 -27 28 29 23 1 0 13 9 11 26 32 0 9 30 23 17 9 -5 21 15 -28 -5 -11 -31 -26 -1 -25 0 -10 1 -20 16 -5 28 -25 -3 -20 -31 3 -23 18 1 -16 -11 -27 -15 -16 5 18 -6 13 15 16 -16 -3 3 -8 12 -23 5 -17 -13 -1 11 30 -20 26 21 7 -28 20 -32 -2 18 27 -10 4 -31 14 0 17 12 -15 19 -2 -10 -21 -4 -10 21 26 -31 -4 1 19 3 -32 -6 8 29 3 -4 -11 2 25 -6 -6 9 16 -11 8 -18 -4 -20 -23 -26 -30 -26 -25 -12 20 5 -2 -23 22 -27 -25 -19 7 20 -2 20 -24 21 16 0 -25 21 -3 -25 21 -15 17 -9 -15 20 -25 3 -10 28 10 5 -14 17 10 14 22 21 -1 -17 -27 -28 -18 -4 7 -13 -12 2 -19 -26 -5 15 -25 14 7 15 -10 0 -10 4 32 32 -29 -6 -5 -1 -27 20 -18 -29 14 5 -19 -22 15 24 -24 -32 10 -24 -26 2 -18 -23 -8 16 -29 10 -25 0 6 17 26 -17 23 -24 -2 -8 11 
-25 -11 14 0 24 -3 24 2 -31 25 32 -4 30 -24 -2 -27 -25 -21 29 13 24 -21 17 17 -2 -4 4 25 5 14 -25 -13 -4 -5 -32 -17 3 11 -21 0 15 -19 -17 25 -6 -9 21 7 12 -11 -23 10 -12 30 23 1 14 11 1 -31 -22 8 27 -9 -19 -8 -20 6 -13 -13 -13 14 11 -20 -32 14 -28 -12 -12 -32 -21 3 15 -8 29 18 23 -19 -28 7 12 -5 32 19 4 4 3 -20 -5 -19 -3 32 -17 8 15 10 31 -6 20 4 9 -1 -16 10 -14 16 -17 17 26 -12 -15 9 13 1 -15 23 -13 26 -24 0 -3 -7 -23 -12 -27 22 4 23 -4 -24 -12 21 -26 24 -32 3 23 21 -2 19 -4 -3 -11 11 -30 17 24 -1 1 11 10 -32 18 11 -25 -11 -21 -13 1 22 -27 32 -32 -16 12 18 -5 0 6 4 -11 -13 10 20 -7 -29 8 -6 -2 -29 -3 -11 29 21 23 29 -21 -15 -17 5 -22 -27 -16 18 -10 -12 -31 4 30 -14 5 2 -10 14 8 -29 32 -13 26 14 -23 22 -25 -6 9 -23 11 3 -3 -26 -31 -14 27 -14 23 -23 -2 -1 -4 -24 -16 -2 14 -31 -8 29 -31 29 -6 -14 -15 29 -12 -9 17 24 
22 9 30 14 0 2 -20 -24 29 -25 -5 -11 5 -16 -11 -8 -27 -16 -10 30 14 21 31 -4 -32 -30 19 19 -28 14 -22 30 -32 24 12 -5 20 -3 -16 -12 -6 31 -18 8 -21 18 -24 9 8 17 -32 21 3 2 -25 -26 -5 -27 -16 31 -13 -5 -23 -16 -16 -30 18 20 22 -7 25 11 1 9 -26 -16 -23 24 1 -13 -31 9 -28 8 3 -4 23 31 -27 -1 16 0 2 23 -27 -7 8 -2 -7 22 10 -25 -16 0 30 -13 -2 32 18 -14 -3 15 -9 10 -30 -21 28 24 13 3 29 14 -19 -8 25 24 32 17 16 6 -20 17 20 -28 -20 9 30 -5 30 -5 13 19 -2 -1 -26 -5 4 -7 14 -7 15 -22 -5 -18 -7 11 3 -14 -6 -26 -32 23 -7 21 -13 -10 -28 19 -29 -24 4 31 -23 13 -27 2 5 32 -12 -17 -16 18 -12 2 29 30 -3 12 -6 22 -4 -8 -20 -23 21 19 -4 -26 17 -10 5 -15 -30 -26 18 4 0 16 22 -18 -23 -31 26 -20 -24 -25 -27 24 30 -2 21 -2 3 9 26 21 -14 -19 22 -31 2 -9 -18 -1 -25 27 -28 18 13 -11 32 23 -16 -8 -3 0 18 -12 21 32 -29 -13 -3 19 -21 26 
-19 9 -21 31 -2 1 30 13 -5 1 21 16 -15 19 15 -31 -9 26 -6 -26 -7 1 -29 11 10 -12 15 23 -21 20 26 -16 -16 8 -14 -20 -3 8 17 29 -21 -17 -23 15 28 -12 -14 28 19 -13 -23 24 24 -24 0 -8 13 14 18 32 -29 -32 22 -19 -5 -23 9 -25 27 27 -18 -23 8 -24 7 -18 1 -29 17 -19 -31 -18 -3 2 -27 14 14 -1 2 4 29 18 2 0 25 -3 26 5 21 -21 -19 -16 -23 -23 8 -30 -20 -29 25 18 31 -13 -2 6 30 -28 13 -8 -26 -11 31 -24 -31 25 -15 24 4 18 13 -22 21 -24 -1 10 -28 -24 -2 1 5 -6 -7 14 12 9 -26 -11 11 -24 30 -32 -29 -30 13 -11 -2 -16 -13 9 24 18 -31 -19 19 -3 -20 9 -11 -28 -26 26 -31 -13 -18 -8 19 -32 23 13 -3 -28 -29 -28 0 7 16 10 -4 -6 8 -7 -1 23 -31 -28 1 -10 -18 -10 5 -13 5 2 0 -14 6 5 22 -32 -1 -2 21 23 9 -18 -15 -17 -25 -7 1 -17 -31 22 -32 11 24 -6 -32 26 -22 -2 31 -11 29 -4 -4 -21 7 32 -7 -16 -21 14 2 13 15 -14 5 25 -30 -30 -22 4 15 5 -19 -17 
19 20 -30 0 13 31 -1 24 12 -27 31 -23 8 17 -9 26 -8 3 -6 -20 -9 19 -6 -19 28 -8 -8 -27 -1 3 -31 -25 -11 30 12 4 26 -5 9 16 28 -11 -26 5 -11 -20 -5 32 -1 30 21 27 -5 20 11 25 31 0 -12 29 -26 25 23 -18 -6 -32 -15 9 27 -19 -4 -17 26 -17 -17 -23 17 17 -18 -2 -30 4 -22 7 7 -27 -27 6 3 -19 14 -20 -4 -29 -17 1 -12 0 30 8 -5 10 -8 31 24 -14 -4 -21 -25 14 -23 11 23 -12 -29 12 7 8 1 27 32 -30 -24 -7 -10 -31 16 -29 15 27 -31 -11 -21 -8 -8 -7 2 2 9 -25 -24 -5 -23 -30 1 20 -29 -9 -29 25 24 -26 -17 28 -28 6 -23 29 11 5 26 6 3 32 -4 -32 28 -32 -18 28 31 -15 -27 -7 -17 -10 12 -8 -19 5 -17 -24 5 -17 -30 -9 -2 13 -8 22 26 19 -6 7 26 -2 23 28 15 -26 18 5 -12 -25 -19 9 8 -15 15 -30 -10 -30 22 9 22 -11 11 9 -26 -11 4 -9 8 19 -19 14 17 -6 -21 -13 18 30 -31 -4 -29 -17 3 -7 19 13 -5 -6 -30 13 11 -5 16 6 -20 12 -32 -11 -23 14 -22 -7 
2 7 11 28 -13 4 9 8 -31 1 -15 23 -11 -22 31 -32 13 14 -16 -15 2 -4 -1 20 24 -4 -15 5 22 -2 5 -32 21 20 -5 14 -24 10 -2 25 2 -8 0 -3 1 -24 -14 28 14 -32 23 -30 20 -4 -21 14 -26 -26 -13 -26 3 -25 -30 11 8 19 -10 18 28 4 -19 -11 23 -9 26 29 23 -18 29 16 15 4 -8 -8 0 29 -16 -22 -5 4 -4 -7 -3 -3 12 23 25 29 -9 -23 -8 -18 18 0 8 -2 -6 16 -28 -22 28 25 -3 -31 -26 -19 -27 19 5 24 17 -4 31 -28 9 24 12 -15 -8 23 -15 -26 -9 23 -29 -16 -28 31 -22 -28 -21 -19 6 -23 -1 -30 2 -18 9 31 25 -15 -19 -14 16 11 -20 31 -32 -9 7 -16 22 10 32 -19 14 -8 -29 30 1 -11 21 -28 -21 -8 30 10 3 0 -15 -31 2 -21 -15 28 21 0 11 -31 -1 12 -26 -1 -13 5 -9 -23 -26 -1 -28 25 -25 -1 24 9 18 -12 -1 17 18 -25 -8 -7 -24 11 32 30 -31 -7 0 -18 -28 0 22 30 30 23 5 -23 20 -26 -13 21 6 -14 31 -25 19 4 6 6 -31 -18 -8 19 -30 4 -16 -4 -10 9 -14 26 -7 23 
-3 22 -2 3 -11 -15 -16 -7 -31 -13 -29 -23 16 21 -7 -24 0 -3 9 -30 20 23 -12 22 -7 30 0 18 19 -5 -25 32 -32 29 -23 18 -1 7 8 30 -8 -22 31 -9 -29 -1 -11 -23 17 21 27 9 10 21 0 14 22 32 -30 29 17 -29 -32 16 -32 -13 25 19 32 -2 -1 12 11 -15 -26 -26 -27 4 5 -20 7 -22 11 28 16 -16 7 -26 0 20 -18 -22 -32 28 -28 3 26 27 8 14 20 14 30 32 -28 -23 30 32 14 6 -2 -4 -6 27 -27 -32 28 9 -24 -22 -22 -24 26 24 24 -8 -13 -11 -1 -11 -16 -25 -2 -20 -27 -11 21 -26 14 11 -10 4 -12 -30 13 2 -27 22 30 20 10 -14 -31 -7 -4 20 -4 27 13 29 22 -31 21 -20 -4 4 17 -18 -11 18 -14 8 31 -2 -12 -28 -1 -16 32 -7 23 -28 32 17 -16 -8 -12 -17 6 -8 8 -24 -16 13 32 20 23 19 12 20 -26 28 -23 -20 -21 -15 18 -31 29 4 -24 15 -6 28 -10 -30 -8 -2 -23 -3 0 -24 3 3 -4 1 15 -20 -29 -25 10 31 23 -28 -26 -28 7 -20 -4 3 3 1 -6 26 22 13 -1 -32 -6 26 32 -8 -15 12 -10 -1 
9 -14 2 -6 12 -2 -10 -15 -29 12 13 28 -21 22 2 22 32 2 -5 25 12 -14 -17 -24 22 -25 2 18 19 4 -10 -8 -25 12 -17 2 -16 -9 -12 -1 -17 -3 29 -23 8 -31 -19 -10 18 18 7 15 20 -2 32 28 15 29 -11 28 -3 8 20 -12 17 -10 -18 -2 -26 -26 -25 -22 -31 1 15 -24 30 6 -24 9 23 -24 -2 27 -3 16 -17 27 8 -5 32 32 -26 -31 17 7 27 -15 -3 18 -27 -21 -1 -27 -4 -12 26 -22 -3 -30 10 27 27 30 23 -29 -25 22 -26 31 -31 -13 -23 -8 -21 17 -30 -18 -22 -26 -28 32 8 13 -16 -20 -5 12 -2 13 3 -6 4 -19 16 -8 -19 -20 -22 13 15 -27 18 -32 -7 8 -22 -32 25 4 -17 4 -2 -6 -22 0 -2 -7 4 1 8 -26 17 -17 -31 32 -15 -28 3 -2 28 -2 -18 5 13 17 14 21 7 -5 21 21 -22 20 -7 -2 -21 -8 26 -24 16 -11 13 -22 10 -10 30 -26 6 -13 26 -20 6 7 -5 9 30 24 5 -11 -7 5 1 6 29 -8 -4 15 -18 -19 10 25 -10 0 23 -21 -7 15 -10 -16 -6 22 15 8 28 -13 -15 -18 -14 11 4 -2 -2 26 -26 5 
-15 1 -22 2 3 -3 -26 -12 31 -2 -21 27 11 -14 13 -4 -14 1 20 11 9 24 -8 9 30 30 -26 24 27 -29 0 -27 30 30 -18 -7 -24 20 29 15 31 11 5 7 26 -27 -10 -31 23 -5 -32 7 22 20 15 11 -25 24 18 -24 -21 6 -17 17 14 -24 -14 19 -29 -31 10 6 7 -9 24 28 1 18 -30 4 16 14 -2 2 18 13 1 22 18 -23 -28 -19 -13 9 4 -15 8 -13 -11 12 -8 -1 -17 21 11 2 16 -28 16 -25 -13 20 -8 9 10 -12 -22 -17 25 17 27 27 23 4 9 26 13 -25 31 -1 -14 -26 18 -17 -15 7 -16 25 -27 26 -23 -14 -21 0 29 -30 -9 -14 -1 -11 1 1 -4 23 8 30 -2 -23 22 -5 -7 6 3 32 -9 -4 -22 6 32 13 4 -13 -6 -13 30 19 19 24 4 -9 -5 19 -7 -19 9 -4 29 22 7 14 -5 -1 -28 -20 20 -5 -18 -6 -15 5 -6 -4 18 31 -18 14 -20 -10 -28 26 29 9 12 -13 10 4 6 -27 -19 4 -4 -30 18 0 30 24 11 22 17 -13 -3 19 -19 2 -12 -9 10 -11 7 -31 20 -27 16 25 5 8 9 3 14 -22 -10 -26 2 24 19 -1 
5 3 -28 26 -22 24 -23 -8 30 12 31 26 -14 -6 -9 -2 14 -18 23 -6 -12 -17 -26 18 3 14 -30 6 17 26 -15 23 2 -27 17 22 -2 28 -6 6 31 -7 -28 -9 -18 -3 -13 18 -12 -27 7 -15 -20 30 4 -6 -5 -9 23 11 2 -12 29 20 24 7 -18 22 30 -32 9 31 -30 -11 -18 23 26 9 14 -22 -18 -6 30 13 17 28 31 4 5 4 -22 27 -28 -14 -14 0 -16 -16 -6 -31 -19 2 5 -1 1 20 -23 9 3 2 -18 16 12 -19 -7 6 7 27 29 -21 11 -12 3 8 -31 -25 11 11 31 -6 8 -7 -19 5 18 -10 -16 17 22 6 2 -12 11 -20 -23 12 -5 -1 16 -2 -20 -22 14 23 -25 20 18 -31 8 23 17 -15 -25 -20 -1 23 -27 12 -6 -27 -6 -31 -16 -32 -2 -23 -1 -18 32 -19 -16 -21 -18 -29 -14 -24 -18 16 23 -16 -12 -24 28 -30 -27 14 -11 -5 -12 -11 -9 12 -13 2 19 1 1 -30 26 -22 -32 7 0 -27 23 4 -17 21 -26 24 -5 -7 -31 26 8 23 9 11 -27 -12 4 25 11 -9 -18 -10 27 3 -31 32 31 22 2 6 1 -12 -1 -10 11 19 16 -4 -32 -28 26 14 
